{"wsid":72295023174,"pmml":"<?xml version='1.0' ?><PMML version='4.3' xmlns='http://www.dmg.org/PMML-4_3' xmlns:xsi='http://www.w3.org/2001/XMLSchema-instance' xsi:schemaLocation='http://www.dmg.org/PMML-4_3 http://www.dmg.org/v4-3/pmml-4-3.xsd'><Header copyright='(c) Copyright IBM Corp. 2011, 2015' description='linear engine'><Application name='Analytic Framework' version='3.0'></Application><Timestamp>Tue Mar 13 23:16:42 2018</Timestamp></Header><DataDictionary numberOfFields='13'><DataField name='wsid' displayName='wsid' optype='categorical' dataType='string'><Value value='722950:23174' property='valid'></Value></DataField><DataField name='year' displayName='year' optype='continuous' dataType='integer'></DataField><DataField name='month' displayName='month' optype='continuous' dataType='integer'></DataField><DataField name='day' displayName='day' optype='continuous' dataType='integer'></DataField><DataField name='ts' displayName='ts' optype='continuous' dataType='integer'></DataField><DataField name='high' displayName='high' optype='continuous' dataType='double'></DataField><DataField name='low' displayName='low' optype='continuous' dataType='double'></DataField><DataField name='mean' displayName='mean' optype='continuous' dataType='double'></DataField><DataField name='variance' displayName='variance' optype='continuous' dataType='double'></DataField><DataField name='stdev' displayName='stdev' optype='continuous' dataType='double'></DataField><DataField name='day-1' displayName='day-1' optype='continuous' dataType='double'></DataField><DataField name='day-2' displayName='day-2' optype='continuous' dataType='double'></DataField><DataField name='day-3' displayName='day-3' optype='continuous' dataType='double'></DataField></DataDictionary><GeneralRegressionModel modelType='generalLinear' targetVariableName='mean' algorithmName='LE' functionName='regression'><Extension extender='spss.com' name='modelID' value='0'></Extension><MiningSchema><MiningField name='day-1'></MiningField><MiningField name='day-2'></MiningField><MiningField name='mean' usageType='predicted'></MiningField></MiningSchema><ModelStats><UnivariateStats field='mean'><Anova><AnovaRow degreesOfFreedom='3.0' fValue='4350.602192534819' meanOfSquares='6347.659187129403' pValue='0.0' sumOfSquares='19042.97756138821' type='Model'></AnovaRow><AnovaRow degreesOfFreedom='2263.0' meanOfSquares='1.459030016125429' sumOfSquares='3301.784926491846' type='Error'></AnovaRow><AnovaRow degreesOfFreedom='2266.0' sumOfSquares='22344.762487880056' type='Total'></AnovaRow></Anova></UnivariateStats><UnivariateStats field='mean'><Counts totalFreq='2267.0'></Counts><NumericInfo maximum='27.029166666666665' mean='16.122046639484534' minimum='8.079166666666666' standardDeviation='3.1402044058389187'></NumericInfo></UnivariateStats><UnivariateStats field='day-1'><Counts totalFreq='2267.0'></Counts><NumericInfo maximum='27.0' mean='16.131627701808583' minimum='8.1' standardDeviation='3.12431897566268'></NumericInfo></UnivariateStats><UnivariateStats field='day-2'><Counts totalFreq='2267.0'></Counts><NumericInfo maximum='27.0' mean='16.12183502426112' minimum='8.1' standardDeviation='3.105570342455851'></NumericInfo></UnivariateStats></ModelStats><Targets><Target field='mean' optype='continuous'></Target></Targets><ParameterList><Parameter label='Intercept' name='P0000001'></Parameter><Parameter label='day-1' name='P0000002'></Parameter><Parameter label='day-1 * day-1' name='P0000003'></Parameter><Parameter label='day-2 * day-2' name='P0000004'></Parameter></ParameterList><CovariateList><Predictor name='day-1'></Predictor><Predictor name='day-2'></Predictor></CovariateList><PPMatrix><PPCell parameterName='P0000002' predictorName='day-1' value='1'></PPCell><PPCell parameterName='P0000003' predictorName='day-1' value='2'></PPCell><PPCell parameterName='P0000004' predictorName='day-2' value='2'></PPCell></PPMatrix><ParamMatrix><PCell beta='-0.7955003524406936' df='1' parameterName='P0000001'></PCell><PCell beta='1.1942451163327554' df='1' parameterName='P0000002'></PCell><PCell beta='-0.0036389502488156627' df='1' parameterName='P0000003'></PCell><PCell beta='-0.005064305772589318' df='1' parameterName='P0000004'></PCell></ParamMatrix></GeneralRegressionModel></PMML>"}
