{"wsid":72494023234,"pmml":"<?xml version='1.0' ?><PMML version='4.3' xmlns='http://www.dmg.org/PMML-4_3' xmlns:xsi='http://www.w3.org/2001/XMLSchema-instance' xsi:schemaLocation='http://www.dmg.org/PMML-4_3 http://www.dmg.org/v4-3/pmml-4-3.xsd'><Header copyright='(c) Copyright IBM Corp. 2011, 2015' description='linear engine'><Application name='Analytic Framework' version='3.0'></Application><Timestamp>Tue Mar 13 23:17:59 2018</Timestamp></Header><DataDictionary numberOfFields='13'><DataField name='wsid' displayName='wsid' optype='categorical' dataType='string'><Value value='724940:23234' property='valid'></Value></DataField><DataField name='year' displayName='year' optype='continuous' dataType='integer'></DataField><DataField name='month' displayName='month' optype='continuous' dataType='integer'></DataField><DataField name='day' displayName='day' optype='continuous' dataType='integer'></DataField><DataField name='ts' displayName='ts' optype='continuous' dataType='integer'></DataField><DataField name='high' displayName='high' optype='continuous' dataType='double'></DataField><DataField name='low' displayName='low' optype='continuous' dataType='double'></DataField><DataField name='mean' displayName='mean' optype='continuous' dataType='double'></DataField><DataField name='variance' displayName='variance' optype='continuous' dataType='double'></DataField><DataField name='stdev' displayName='stdev' optype='continuous' dataType='double'></DataField><DataField name='day-1' displayName='day-1' optype='continuous' dataType='double'></DataField><DataField name='day-2' displayName='day-2' optype='continuous' dataType='double'></DataField><DataField name='day-3' displayName='day-3' optype='continuous' dataType='double'></DataField></DataDictionary><GeneralRegressionModel modelType='generalLinear' targetVariableName='mean' algorithmName='LE' functionName='regression'><Extension extender='spss.com' name='modelID' value='0'></Extension><MiningSchema><MiningField name='day-1'></MiningField><MiningField name='day-3'></MiningField><MiningField name='mean' usageType='predicted'></MiningField></MiningSchema><ModelStats><UnivariateStats field='mean'><Anova><AnovaRow degreesOfFreedom='4.0' fValue='20208.365578991536' meanOfSquares='13360.050260780361' pValue='0.0' sumOfSquares='53440.201043121444' type='Model'></AnovaRow><AnovaRow degreesOfFreedom='5837.0' meanOfSquares='0.6611148342778086' sumOfSquares='3858.927287679569' type='Error'></AnovaRow><AnovaRow degreesOfFreedom='5841.0' sumOfSquares='57299.12833080102' type='Total'></AnovaRow></Anova></UnivariateStats><UnivariateStats field='mean'><Counts totalFreq='5842.0'></Counts><NumericInfo maximum='25.395833333333336' mean='13.231279208439721' minimum='4.491666666666667' standardDeviation='3.132062389924772'></NumericInfo></UnivariateStats><UnivariateStats field='day-1'><Counts totalFreq='5842.0'></Counts><NumericInfo maximum='25.4' mean='13.23058883943856' minimum='4.5' standardDeviation='3.128667579696052'></NumericInfo></UnivariateStats><UnivariateStats field='day-3'><Counts totalFreq='5842.0'></Counts><NumericInfo maximum='25.4' mean='13.220506675795985' minimum='4.5' standardDeviation='3.1219027671534345'></NumericInfo></UnivariateStats></ModelStats><Targets><Target field='mean' optype='continuous'></Target></Targets><ParameterList><Parameter label='Intercept' name='P0000001'></Parameter><Parameter label='day-1' name='P0000002'></Parameter><Parameter label='day-3' name='P0000003'></Parameter><Parameter label='day-1 * day-1' name='P0000004'></Parameter><Parameter label='day-3 * day-3' name='P0000005'></Parameter></ParameterList><CovariateList><Predictor name='day-1'></Predictor><Predictor name='day-3'></Predictor></CovariateList><PPMatrix><PPCell parameterName='P0000002' predictorName='day-1' value='1'></PPCell><PPCell parameterName='P0000003' predictorName='day-3' value='1'></PPCell><PPCell parameterName='P0000004' predictorName='day-1' value='2'></PPCell><PPCell parameterName='P0000005' predictorName='day-3' value='2'></PPCell></PPMatrix><ParamMatrix><PCell beta='-0.1893719676177757' df='1' parameterName='P0000001'></PCell><PCell beta='1.0206335555746577' df='1' parameterName='P0000002'></PCell><PCell beta='0.04612636680106633' df='1' parameterName='P0000003'></PCell><PCell beta='-0.001390566288969406' df='1' parameterName='P0000004'></PCell><PCell beta='-0.002361287337172125' df='1' parameterName='P0000005'></PCell></ParamMatrix></GeneralRegressionModel></PMML>"}
