{"wsid":72503014732,"pmml":"<?xml version='1.0' ?><PMML version='4.3' xmlns='http://www.dmg.org/PMML-4_3' xmlns:xsi='http://www.w3.org/2001/XMLSchema-instance' xsi:schemaLocation='http://www.dmg.org/PMML-4_3 http://www.dmg.org/v4-3/pmml-4-3.xsd'><Header copyright='(c) Copyright IBM Corp. 2011, 2015' description='linear engine'><Application name='Analytic Framework' version='3.0'></Application><Timestamp>Tue Mar 13 23:17:19 2018</Timestamp></Header><DataDictionary numberOfFields='13'><DataField name='wsid' displayName='wsid' optype='categorical' dataType='string'><Value value='725030:14732' property='valid'></Value></DataField><DataField name='year' displayName='year' optype='continuous' dataType='integer'></DataField><DataField name='month' displayName='month' optype='continuous' dataType='integer'></DataField><DataField name='day' displayName='day' optype='continuous' dataType='integer'></DataField><DataField name='ts' displayName='ts' optype='continuous' dataType='integer'></DataField><DataField name='high' displayName='high' optype='continuous' dataType='double'></DataField><DataField name='low' displayName='low' optype='continuous' dataType='double'></DataField><DataField name='mean' displayName='mean' optype='continuous' dataType='double'></DataField><DataField name='variance' displayName='variance' optype='continuous' dataType='double'></DataField><DataField name='stdev' displayName='stdev' optype='continuous' dataType='double'></DataField><DataField name='day-1' displayName='day-1' optype='continuous' dataType='double'></DataField><DataField name='day-2' displayName='day-2' optype='continuous' dataType='double'></DataField><DataField name='day-3' displayName='day-3' optype='continuous' dataType='double'></DataField></DataDictionary><GeneralRegressionModel modelType='generalLinear' targetVariableName='mean' algorithmName='LE' functionName='regression'><Extension extender='spss.com' name='modelID' value='0'></Extension><MiningSchema><MiningField name='day-1'></MiningField><MiningField name='day-3'></MiningField><MiningField name='mean' usageType='predicted'></MiningField></MiningSchema><ModelStats><UnivariateStats field='mean'><Anova><AnovaRow degreesOfFreedom='3.0' fValue='54235.562697228066' meanOfSquares='155678.7253255767' pValue='0.0' sumOfSquares='467036.17597673007' type='Model'></AnovaRow><AnovaRow degreesOfFreedom='5820.0' meanOfSquares='2.870417814131636' sumOfSquares='16705.831678246122' type='Error'></AnovaRow><AnovaRow degreesOfFreedom='5823.0' sumOfSquares='483742.0076549762' type='Total'></AnovaRow></Anova></UnivariateStats><UnivariateStats field='mean'><Counts totalFreq='5824.0'></Counts><NumericInfo maximum='32.4375' mean='12.622962144502338' minimum='-10.350000000000003' standardDeviation='9.114513789006562'></NumericInfo></UnivariateStats><UnivariateStats field='day-1'><Counts totalFreq='5824.0'></Counts><NumericInfo maximum='32.4' mean='12.62544642857143' minimum='-10.4' standardDeviation='9.123628240934154'></NumericInfo></UnivariateStats><UnivariateStats field='day-3'><Counts totalFreq='5824.0'></Counts><NumericInfo maximum='32.4' mean='12.616208791208797' minimum='-10.4' standardDeviation='9.121229150026913'></NumericInfo></UnivariateStats></ModelStats><Targets><Target field='mean' optype='continuous'></Target></Targets><ParameterList><Parameter label='Intercept' name='P0000001'></Parameter><Parameter label='day-1' name='P0000002'></Parameter><Parameter label='day-3' name='P0000003'></Parameter><Parameter label='day-1 * day-1' name='P0000004'></Parameter></ParameterList><CovariateList><Predictor name='day-1'></Predictor><Predictor name='day-3'></Predictor></CovariateList><PPMatrix><PPCell parameterName='P0000002' predictorName='day-1' value='1'></PPCell><PPCell parameterName='P0000003' predictorName='day-3' value='1'></PPCell><PPCell parameterName='P0000004' predictorName='day-1' value='2'></PPCell></PPMatrix><ParamMatrix><PCell beta='0.3003541404007784' df='1' parameterName='P0000001'></PCell><PCell beta='0.9689845498834764' df='1' parameterName='P0000002'></PCell><PCell beta='-0.01231215854112654' df='1' parameterName='P0000003'></PCell><PCell beta='0.0010059764081895724' df='1' parameterName='P0000004'></PCell></ParamMatrix></GeneralRegressionModel></PMML>"}
