{"wsid":"725300:94846","pmml":"<?xml version='1.0' ?><PMML version='4.3' xmlns='http://www.dmg.org/PMML-4_3' xmlns:xsi='http://www.w3.org/2001/XMLSchema-instance' xsi:schemaLocation='http://www.dmg.org/PMML-4_3 http://www.dmg.org/v4-3/pmml-4-3.xsd'><Header copyright='(c) Copyright IBM Corp. 2011, 2015' description='linear engine'><Application name='Analytic Framework' version='3.0'></Application><Timestamp>Tue Mar 13 23:16:8 2018</Timestamp></Header><DataDictionary numberOfFields='13'><DataField name='wsid' displayName='wsid' optype='categorical' dataType='string'><Value value='725300:94846' property='valid'></Value></DataField><DataField name='year' displayName='year' optype='continuous' dataType='integer'></DataField><DataField name='month' displayName='month' optype='continuous' dataType='integer'></DataField><DataField name='day' displayName='day' optype='continuous' dataType='integer'></DataField><DataField name='ts' displayName='ts' optype='continuous' dataType='integer'></DataField><DataField name='high' displayName='high' optype='continuous' dataType='double'></DataField><DataField name='low' displayName='low' optype='continuous' dataType='double'></DataField><DataField name='mean' displayName='mean' optype='continuous' dataType='double'></DataField><DataField name='variance' displayName='variance' optype='continuous' dataType='double'></DataField><DataField name='stdev' displayName='stdev' optype='continuous' dataType='double'></DataField><DataField name='day-1' displayName='day-1' optype='continuous' dataType='double'></DataField><DataField name='day-2' displayName='day-2' optype='continuous' dataType='double'></DataField><DataField name='day-3' displayName='day-3' optype='continuous' dataType='double'></DataField></DataDictionary><GeneralRegressionModel modelType='generalLinear' targetVariableName='mean' algorithmName='LE' functionName='regression'><Extension extender='spss.com' name='modelID' value='0'></Extension><MiningSchema><MiningField name='day-1'></MiningField><MiningField name='day-2'></MiningField><MiningField name='day-3'></MiningField><MiningField name='mean' usageType='predicted'></MiningField></MiningSchema><ModelStats><UnivariateStats field='mean'><Anova><AnovaRow degreesOfFreedom='6.0' fValue='3929.891879940003' meanOfSquares='42614.67196237967' pValue='0.0' sumOfSquares='255688.031774278' type='Model'></AnovaRow><AnovaRow degreesOfFreedom='2144.0' meanOfSquares='10.843726307053071' sumOfSquares='23248.949202321786' type='Error'></AnovaRow><AnovaRow degreesOfFreedom='2150.0' sumOfSquares='278936.9809765998' type='Total'></AnovaRow></Anova></UnivariateStats><UnivariateStats field='mean'><Counts totalFreq='2151.0'></Counts><NumericInfo maximum='33.5125' mean='9.82912760214889' minimum='-23.233333333333334' standardDeviation='11.390264732954657'></NumericInfo></UnivariateStats><UnivariateStats field='day-1'><Counts 'totalFreq='2151.0'></Counts><NumericInfo maximum='33.5' mean='9.869502556950279' minimum='-23.2' standardDeviation='11.391861218936306'></NumericInfo></UnivariateStats><UnivariateStats field='day-2'><Counts totalFreq='215'1.0'></Counts><NumericInfo maximum='33.5' mean='9.884751278475111' minimum='-21.9' standardDeviation='11.409543533700681'></NumericInfo></UnivariateStats><UnivariateStats field='day-3'><Counts totalFreq='2151.0'></Counts><NumericInfo maximum='33.5' mean='9.855973965597373' minimum='-23.2' standardDeviation='11.384758900625368'></NumericInfo></UnivariateStats></ModelStats><Targets><Target field='mean' optype='continuous'></Target></Targets><ParameterList><Parameter label='Intercept' name='P0000001'></Parameter><Parameter label='day-1' name='P0000002'></Parameter><Parameter label='day-2' name='P0000003'></Parameter><Parameter label='day-3' name='P0000004'></Parameter><Parameter label='day-1 * day-1' name='P0000005'></Parameter><Parameter label='day-2 * day-2' name='P0000006'></Parameter><Parameter label='day-3 * day-3' name='P0000007'></Parameter></ParameterList><CovariateList><Predictor name='day-1'></Predictor><Predictor name='day-2'></Predictor><Predictor name='day-3'></Predictor></CovariateList><PPMatrix><PPCell parameterName='P0000002' predictorName='day-1' value='1'></PPCell><PPCell parameterName='P0000003' predictorName='day-2' value='1'></PPCell><PPCell parameterName='P0000004' predictorName='day-3' value='1'></PPCell><PPCell parameterName='P0000005' predictorName='day-1' value='2'></PPCell><PPCell parameterName='P0000006' predictorName='day-2' value='2'></PPCell><PPCell parameterName='P0000007' predictorName='day-3' value='2'></PPCell></PPMatrix><ParamMatrix><PCell beta='0.25000810031429965' df='1' parameterName='P0000001'></PCell><PCell beta='0.9960937210693234' df='1' parameterName='P0000002'></PCell><PCell beta='-0.2668741271692906' df='1' parameterName='P0000003'></PCell><PCell beta='0.21085459065852463' df='1' parameterName='P0000004'></PCell><PCell beta='0.002077696454229644' df='1' parameterName='P0000005'></PCell><PCell beta='-0.003068325852472412' df='1' parameterName='P0000006'></PCell><PCell beta='0.002360599852200168' df='1' parameterName='P0000007'></PCell></ParamMatrix></GeneralRegressionModel></PMML>"}
